{
  "w1": [
    [
      -0.005203297361731529,
      -0.05202613025903702,
      0.12022242695093155
    ],
    [
      0.032063279300928116,
      0.01211269199848175,
      0.0232109222561121
    ],
    [
      0.07599441707134247,
      -0.10047643631696701,
      -0.19329945743083954
    ],
    [
      0.08326426893472672,
      0.015551209449768066,
      0.005829494446516037
    ],
    [
      0.1858394294977188,
      0.014798781834542751,
      0.003154897131025791
    ],
    [
      -0.087596595287323,
      -0.017734669148921967,
      0.0535929873585701
    ],
    [
      -0.0926334410905838,
      0.09645931422710419,
      -0.20378713309764862
    ],
    [
      0.06304032355546951,
      -0.08678876608610153,
      0.11498309671878815
    ],
    [
      0.03965418413281441,
      0.10362060368061066,
      0.18782807886600494
    ],
    [
      0.0749867707490921,
      0.11291324347257614,
      -0.1385708600282669
    ],
    [
      0.019627034664154053,
      -0.02194126322865486,
      0.10326802730560303
    ],
    [
      0.06226998567581177,
      -0.0829947292804718,
      0.09856785833835602
    ],
    [
      -0.029395656660199165,
      -0.025401894003152847,
      -0.14000998437404633
    ],
    [
      0.029264463111758232,
      0.03712626174092293,
      -0.1167101263999939
    ],
    [
      -0.029266370460391045,
      0.19702675938606262,
      0.0204959474503994
    ],
    [
      0.017912056297063828,
      -0.04715579375624657,
      -0.04148809239268303
    ],
    [
      0.034150704741477966,
      0.049317747354507446,
      0.008351419121026993
    ],
    [
      0.1775173544883728,
      -0.007640714291483164,
      0.17352956533432007
    ],
    [
      0.10623785108327866,
      0.06612352281808853,
      -0.007613238412886858
    ],
    [
      0.017791323363780975,
      -0.020000649616122246,
      -0.04792576655745506
    ],
    [
      0.18488314747810364,
      0.22068488597869873,
      0.00499673280864954
    ],
    [
      -0.07077465951442719,
      0.11660706996917725,
      -0.026076575741171837
    ],
    [
      -0.24844662845134735,
      0.08241836726665497,
      0.041388802230358124
    ],
    [
      0.2172088921070099,
      0.09998433291912079,
      0.03907306119799614
    ],
    [
      0.007318010553717613,
      -0.16292929649353027,
      0.07753545790910721
    ],
    [
      -0.010673703625798225,
      0.012526226229965687,
      -0.08399514853954315
    ],
    [
      -0.022247247397899628,
      -0.004595399834215641,
      -0.047941070050001144
    ],
    [
      0.24618005752563477,
      -0.06369432806968689,
      0.04110149294137955
    ],
    [
      -0.08857168257236481,
      -0.058157142251729965,
      -0.008279018104076385
    ],
    [
      0.19566091895103455,
      0.03413383662700653,
      -0.02163107320666313
    ],
    [
      0.1068415492773056,
      -0.06260985136032104,
      0.08298967778682709
    ],
    [
      -0.05823536589741707,
      0.015861283987760544,
      0.00484489556401968
    ]
  ],
  "b1": [
    -0.01218564622104168,
    -0.019054953008890152,
    -0.004183840472251177,
    0.019343625754117966,
    0.018943706527352333,
    0.017018746584653854,
    -0.004758902359753847,
    0.013907019048929214,
    0.009602272883057594,
    -0.01846574991941452,
    0.01119297556579113,
    0.014026932418346405,
    0.004093267023563385,
    0.003464737441390753,
    -0.019757777452468872,
    -0.005203426815569401,
    0.019932687282562256,
    -0.017275523394346237,
    0.018774403259158134,
    -0.004784081596881151,
    0.01887201890349388,
    -0.01757100783288479,
    0.019969791173934937,
    -0.019975408911705017,
    0.018749870359897614,
    0.0032251481898128986,
    0.0034047504886984825,
    -0.019715024158358574,
    -0.019102826714515686,
    0.018691536039114,
    0.018300101161003113,
    0.019734196364879608
  ],
  "w2": [
    [
      0.050903499126434326,
      0.06498286128044128,
      -0.08682475984096527,
      -0.08293387293815613,
      -0.14162100851535797,
      -0.09370680153369904,
      -0.04169836640357971,
      -0.13438256084918976,
      -0.02663400024175644,
      0.00011765910312533379,
      -0.04877301678061485,
      -0.04904317855834961,
      0.13528253138065338,
      0.025954389944672585,
      0.02173706889152527,
      -0.024588096886873245,
      -0.11564388126134872,
      0.03433973714709282,
      -0.06209038197994232,
      -0.08647175878286362,
      -0.04578747600317001,
      0.07069909572601318,
      -0.06832412630319595,
      0.030820131301879883,
      -0.03231220692396164,
      0.012584589421749115,
      0.07725989073514938,
      0.10531006753444672,
      0.06076202541589737,
      -0.1293773055076599,
      -0.07916443794965744,
      -0.17597059905529022
    ]
  ],
  "b2": [
    -0.01934768445789814
  ]
}